{"learner":{"attributes":{},"feature_names":[],"feature_types":[],"gradient_booster":{"model":{"gbtree_model_param":{"num_parallel_tree":"1","num_trees":"10"},"iteration_indptr":[0,1,2,3,4,5,6,7,8,9,10],"tree_info":[0,0,0,0,0,0,0,0,0,0],"trees":[{"base_weights":[8.93147E3,5.0899727E3,1.14635625E4,4.552599E3,6.593873E3,2.5435209E4,1.1007721E4,3.7773818E3,4.941194E3,3.2833977E4,1.2949378E4,9.66308E3,1.2611391E4,6.738126E3,4.5703184E3,1.018692E4,6.913846E3,1.5644712E4,1.209757E4],"categories":[],"categories_nodes":[],"categories_segments":[],"categories_sizes":[],"default_left":[1,1,1,1,0,1,1,0,1,0,0,1,1,0,0,0,0,0,0],"id":0,"left_children":[1,3,5,7,-1,9,11,-1,13,-1,-1,15,17,-1,-1,-1,-1,-1,-1],"loss_changes":[4.9413407E9,1.3645926E8,1.6879944E9,2.8027392E7,0E0,4.062331E8,5.2719616E8,0E0,3.584717E7,0E0,0E0,1.7151386E8,1.9585024E7,0E0,0E0,0E0,0E0,0E0,0E0],"parents":[2147483647,0,0,1,1,2,2,3,3,5,5,6,6,8,8,11,11,12,12],"right_children":[2,4,6,8,-1,10,12,-1,14,-1,-1,16,18,-1,-1,-1,-1,-1,-1],"split_conditions":[-6.014154E-1,5E-1,8.474576E-3,-9.467215E-1,3.5903217E2,6.731703E-1,5E-1,2.0567603E2,2.0762712E-1,1.7877891E3,7.050853E2,5E-1,8.050847E-2,3.6688666E2,2.488509E2,5.5467126E2,3.764545E2,8.5184454E2,6.5870496E2],"split_indices":[10,8,4,10,0,10,1,0,4,0,0,0,4,0,0,0,0,0,0],"split_type":[0,0,0,0,0,0,0,0,0,0,0,0,0,0,0,0,0,0,0],"sum_hessian":[5.13E2,2.05E2,3.08E2,1.54E2,5.1E1,8E0,3E2,5.5E1,9.9E1,4E0,4E0,1.67E2,1.33E2,1.4E1,8.5E1,1.38E2,2.9E1,1.5E1,1.18E2],"tree_param":{"num_deleted":"0","num_feature":"13","num_nodes":"19","size_leaf_vector":"0"}},{"base_weights":[8.434332E3,4.796589E3,1.0340482E4,3.9248562E3,5.5275503E3,2.0477416E4,9.908505E3,8.425508E3,5.092606E3,1.3341656E4,3.319743E4,8.609282E3,1.1758415E4,4.5632026E3,6.0804395E3,1.3984344E4,3.7786785E3,1.1683174E4,8.0308667E3],"categories":[],"categories_nodes":[],"categories_segments":[],"categories_sizes":[],"default_left":[1,1,1,0,1,1,1,0,1,1,0,1,0,0,0,0,0,0,0],"id":1,"left_children":[1,3,5,-1,7,9,11,-1,13,15,-1,17,-1,-1,-1,-1,-1,-1,-1],"loss_changes":[3.5630572E9,9.363789E7,1.2903096E9,0E0,7.809382E7,7.370568E8,6.894981E8,0E0,1.722752E7,8.61568E6,0E0,2.564352E8,0E0,0E0,0E0,0E0,0E0,0E0,0E0],"parents":[2147483647,0,0,1,1,2,2,4,4,5,5,6,6,8,8,9,9,11,11],"right_children":[2,4,6,-1,8,10,12,-1,14,16,-1,18,-1,-1,-1,-1,-1,-1,-1],"split_conditions":[5E-1,-5.320398E-1,8.474576E-3,2.1370592E2,1.5677966E-1,5E-1,5E-1,4.5876352E2,5E-1,5E-1,1.8075789E3,1.05932206E-1,6.4023816E2,2.4846347E2,3.3107605E2,7.614386E2,2.0574663E2,6.3614136E2,4.3727557E2],"split_indices":[11,5,4,0,4,1,1,0,1,0,0,4,0,0,0,0,0,0,0],"split_type":[0,0,0,0,0,0,0,0,0,0,0,0,0,0,0,0,0,0,0],"sum_hessian":[5.2E2,1.8E2,3.4E2,8.5E1,9.5E1,1.2E1,3.28E2,1E1,8.5E1,9E0,3E0,1.96E2,1.32E2,5.9E1,2.6E1,8E0,1E0,2.8E1,1.68E2],"tree_param":{"num_deleted":"0","num_feature":"13","num_nodes":"19","size_leaf_vector":"0"}},{"base_weights":[7.9923037E3,4.5811797E3,1.0145795E4,3.9122715E3,5.7265747E3,1.6244832E4,9.632185E3,2.9606274E3,4.1564497E3,3.795801E4,1.3403341E4,8.232785E3,1.1149438E4,3.3963804E3,1.3922144E3,1.3986778E4,5.2404214E3,7.702063E3,1.0270141E4],"categories":[],"categories_nodes":[],"categories_segments":[],"categories_sizes":[],"default_left":[1,1,1,1,0,1,1,1,0,0,1,1,0,0,0,0,0,0,0],"id":2,"left_children":[1,3,5,7,-1,9,11,13,-1,-1,15,17,-1,-1,-1,-1,-1,-1,-1],"loss_changes":[3.5823555E9,1.2546483E8,7.8954906E8,1.673984E7,0E0,8.4858214E8,5.0483814E8,1.5090768E7,0E0,0E0,2.6714624E7,8.308634E7,0E0,0E0,0E0,0E0,0E0,0E0,0E0],"parents":[2147483647,0,0,1,1,2,2,3,3,5,5,6,6,7,7,10,10,11,11],"right_children":[2,4,6,8,-1,10,12,14,-1,-1,16,18,-1,-1,-1,-1,-1,-1,-1],"split_conditions":[-5.9125936E-1,-8.9594114E-1,2.9411765E-2,-1.0127358E0,3.1180832E2,-5.4047906E-1,5E-1,5E-1,2.2631602E2,2.0667896E3,5E-1,1.5E0,6.070798E2,1.8493074E2,7.580518E1,7.6157117E2,2.853376E2,4.193724E2,5.592026E2],"split_indices":[10,10,3,10,0,10,1,2,0,0,2,11,0,0,0,0,0,0,0],"split_type":[0,0,0,0,0,0,0,0,0,0,0,0,0,0,0,0,0,0,0],"sum_hessian":[4.93E2,1.92E2,3.01E2,1.24E2,6.8E1,2.1E1,2.8E2,2.8E1,9.6E1,1E0,2E1,1.49E2,1.31E2,2.1E1,7E0,1.8E1,2E0,1.22E2,2.7E1],"tree_param":{"num_deleted":"0","num_feature":"13","num_nodes":"19","size_leaf_vector":"0"}},{"base_weights":[7.5584004E3,4.422405E3,9.638063E3,3.3114944E3,4.934055E3,1.9745746E4,9.231253E3,1.8160127E3,3.401356E3,4.247495E3,6.108398E3,1.2876257E4,3.3772266E4,8.1736357E3,1.0509045E4,3.8208352E3,5.2210386E3,7.5543574E3,5.3141724E3,1.1315454E4,7.5932373E3],"categories":[],"categories_nodes":[],"categories_segments":[],"categories_sizes":[],"default_left":[1,1,1,1,1,1,1,0,0,1,1,0,0,1,0,0,0,0,0,0,0],"id":3,"left_children":[1,3,5,7,9,11,13,-1,-1,15,17,-1,-1,19,-1,-1,-1,-1,-1,-1,-1],"loss_changes":[3.2965427E9,1.0074982E8,1.0800763E9,2.960768E6,8.612301E7,6.250399E8,3.1547187E8,0E0,0E0,1.7849216E7,1.6125952E7,0E0,0E0,2.186025E8,0E0,0E0,0E0,0E0,0E0,0E0,0E0],"parents":[2147483647,0,0,1,1,2,2,3,3,4,4,5,5,6,6,9,9,10,10,13,13],"right_children":[2,4,6,8,10,12,14,-1,-1,16,18,-1,-1,20,-1,-1,-1,-1,-1,-1,-1],"split_conditions":[-5.861813E-1,-9.365654E-1,8.474576E-3,-1.0787504E0,-4.3502337E-1,5E-1,5E-1,9.888073E1,1.8520166E2,5E-1,1.5677966E-1,7.0110394E2,1.8388783E3,1.05932206E-1,5.7221075E2,2.0804204E2,2.8428223E2,4.1132993E2,2.893533E2,6.1611926E2,4.1344693E2],"split_indices":[10,10,4,10,6,1,1,0,0,1,4,0,0,4,0,0,0,0,0,0,0],"split_type":[0,0,0,0,0,0,0,0,0,0,0,0,0,0,0,0,0,0,0,0,0],"sum_hessian":[5.11E2,2.05E2,3.06E2,6.7E1,1.38E2,1E1,2.96E2,5E0,6.2E1,9E1,4.8E1,8E0,2E0,1.66E2,1.3E2,6.6E1,2.4E1,1.4E1,3.4E1,2.3E1,1.43E2],"tree_param":{"num_deleted":"0","num_feature":"13","num_nodes":"21","size_leaf_vector":"0"}},{"base_weights":[7.1241406E3,4.0044507E3,8.890535E3,3.1449756E3,4.729338E3,1.786956E4,8.49301E3,7.7213335E3,4.3111E3,1.880631E4,3.314236E3,9.009661E3,5.2646265E3,5.07621E3,3.7559202E3,2.4075305E4,1.1603397E4,9.401547E3,5.5481245E3],"categories":[],"categories_nodes":[],"categories_segments":[],"categories_sizes":[],"default_left":[1,1,1,0,1,1,1,0,1,1,0,1,0,0,0,0,0,0,0],"id":4,"left_children":[1,3,5,-1,7,9,11,-1,13,15,-1,17,-1,-1,-1,-1,-1,-1,-1],"loss_changes":[2.8023583E9,1.0225357E8,1.0189906E9,0E0,9.184794E7,1.1491994E8,4.796375E8,0E0,1.916288E7,1.760658E8,0E0,3.1545754E8,0E0,0E0,0E0,0E0,0E0,0E0,0E0],"parents":[2147483647,0,0,1,1,2,2,4,4,5,5,6,6,8,8,9,9,11,11],"right_children":[2,4,6,-1,8,10,12,-1,14,16,-1,18,-1,-1,-1,-1,-1,-1,-1],"split_conditions":[5E-1,-5.320398E-1,8.474576E-3,1.7124191E2,1.5677966E-1,5E-1,5E-1,4.2042166E2,9.832909E-1,5E-1,1.8045804E2,5E-1,2.8665555E2,2.763964E2,2.0450745E2,1.310885E3,6.3179755E2,5.119082E2,3.0209183E2],"split_indices":[11,5,4,0,4,0,0,0,7,9,0,2,0,0,0,0,0,0,0],"split_type":[0,0,0,0,0,0,0,0,0,0,0,0,0,0,0,0,0,0,0],"sum_hessian":[5.14E2,1.87E2,3.27E2,8.8E1,9.9E1,1.2E1,3.15E2,1E1,8.9E1,1.1E1,1E0,2.7E2,4.5E1,3.4E1,5.5E1,5E0,6E0,2.41E2,2.9E1],"tree_param":{"num_deleted":"0","num_feature":"13","num_nodes":"19","size_leaf_vector":"0"}},{"base_weights":[6.852158E3,3.986441E3,8.568031E3,2.7117197E3,4.327558E3,1.1222028E4,7.9508647E3,3.8255352E3,5.4027744E3,1.1547729E4,5.5251826E3,6.747072E3,9.130159E3,3.475326E3,4.8626816E3,7.986272E3,4.955936E3,1.1841168E4,6.362454E3,6.158388E3,8.910223E3,7.1858594E3,9.555314E3],"categories":[],"categories_nodes":[],"categories_segments":[],"categories_sizes":[],"default_left":[1,1,1,0,1,1,1,1,1,1,0,1,1,0,0,0,0,0,0,0,0,0,0],"id":5,"left_children":[1,3,5,-1,7,9,11,13,15,17,-1,19,21,-1,-1,-1,-1,-1,-1,-1,-1,-1,-1],"loss_changes":[2.4490312E9,7.131648E7,4.2672947E8,0E0,5.975808E7,4.195584E7,3.0607974E8,2.1237632E7,1.236736E7,5.30176E6,0E0,1.13216E8,3.714355E7,0E0,0E0,0E0,0E0,0E0,0E0,0E0,0E0,0E0,0E0],"parents":[2147483647,0,0,1,1,2,2,4,4,5,5,6,6,7,7,8,8,9,9,11,11,12,12],"right_children":[2,4,6,-1,8,10,12,14,16,18,-1,20,22,-1,-1,-1,-1,-1,-1,-1,-1,-1,-1],"split_conditions":[-6.014154E-1,-9.467215E-1,1.4705883E-1,1.4765141E2,-4.3502337E-1,5E-1,5E-1,5E-1,2.9411765E-2,5E-1,3.0084265E2,1.5E0,4.1176474E-1,1.8922928E2,2.647699E2,4.348474E2,2.6984753E2,6.44744E2,3.4643155E2,3.353203E2,4.851559E2,3.9126544E2,5.2028076E2],"split_indices":[10,10,3,0,6,2,1,1,3,0,0,11,3,0,0,0,0,0,0,0,0,0,0],"split_type":[0,0,0,0,0,0,0,0,0,0,0,0,0,0,0,0,0,0,0,0,0,0,0],"sum_hessian":[5.04E2,1.9E2,3.14E2,4.2E1,1.48E2,5.6E1,2.58E2,1.04E2,4.4E1,5.2E1,4E0,1.31E2,1.27E2,8.1E1,2.3E1,4E0,4E1,4.8E1,4E0,1.06E2,2.5E1,2.6E1,1.01E2],"tree_param":{"num_deleted":"0","num_feature":"13","num_nodes":"23","size_leaf_vector":"0"}},{"base_weights":[6.4952896E3,3.690829E3,8.042531E3,5.6506665E3,3.4668748E3,1.7433371E4,7.6482173E3,2.5214084E3,6.364632E3,3.1114463E3,4.5797715E3,1.1356107E4,2.8268156E4,6.52295E3,9.147519E3,1.9171235E3,3.434422E3,4.643327E3,1.0504906E3,3.8910447E3,1.27359795E4,5.9076865E3,8.785195E3,1.24388545E4,8.738582E3],"categories":[],"categories_nodes":[],"categories_segments":[],"categories_sizes":[],"default_left":[1,1,1,1,1,1,1,0,0,1,1,1,0,1,1,0,0,0,0,0,0,0,0,0,0],"id":6,"left_children":[1,3,5,7,9,11,13,-1,-1,15,17,19,-1,21,23,-1,-1,-1,-1,-1,-1,-1,-1,-1,-1],"loss_changes":[2.2787564E9,6.424141E7,1.1330683E9,2.4166464E7,5.4576E7,5.3497523E8,4.9707827E8,0E0,0E0,4.5489664E7,4.093824E6,5.345011E7,0E0,2.15339E8,7.838618E7,0E0,0E0,0E0,0E0,0E0,0E0,0E0,0E0,0E0,0E0],"parents":[2147483647,0,0,1,1,2,2,3,3,4,4,5,5,6,6,9,9,10,10,11,11,13,13,14,14],"right_children":[2,4,6,8,10,12,14,-1,-1,16,18,20,-1,22,24,-1,-1,-1,-1,-1,-1,-1,-1,-1,-1],"split_conditions":[5E-1,1.3135593E-1,8.474576E-3,-4.3502337E-1,5E-1,5E-1,5E-1,1.3728908E2,3.4655014E2,-1.3807133E0,9.618644E-1,1.5E0,1.539183E3,1.5E0,8.050847E-2,1.04386154E2,1.8700209E2,2.528262E2,5.7198544E1,2.118649E2,6.9346594E2,3.2166977E2,4.7834827E2,6.7728766E2,4.758102E2],"split_indices":[11,4,4,6,1,1,1,0,0,5,4,8,0,11,4,0,0,0,0,0,0,0,0,0,0],"split_type":[0,0,0,0,0,0,0,0,0,0,0,0,0,0,0,0,0,0,0,0,0,0,0,0,0],"sum_hessian":[5.31E2,1.9E2,3.41E2,1.7E1,1.73E2,1.2E1,3.29E2,4E0,1.3E1,1.34E2,3.9E1,9E0,3E0,1.91E2,1.38E2,3E1,1.04E2,3.8E1,1E0,2E0,7E0,1.53E2,3.8E1,1.2E1,1.26E2],"tree_param":{"num_deleted":"0","num_feature":"13","num_nodes":"25","size_leaf_vector":"0"}},{"base_weights":[6.156168E3,3.5821826E3,7.860335E3,5.313056E3,3.3639824E3,1.4741677E4,7.3739985E3,3.0799065E3,6.20963E3,2.9247158E3,4.1350435E3,3.4257773E4,1.1754233E4,7.661169E3,4.218676E3,2.4087236E3,3.108844E3,4.330267E3,3.0360596E3,4.946984E3,1.3345798E4,7.959741E3,4.6678696E3],"categories":[],"categories_nodes":[],"categories_segments":[],"categories_sizes":[],"default_left":[1,1,1,1,1,1,1,0,0,1,1,0,1,1,0,0,0,0,0,0,0,0,0],"id":7,"left_children":[1,3,5,7,9,11,13,-1,-1,15,17,-1,19,21,-1,-1,-1,-1,-1,-1,-1,-1,-1],"loss_changes":[2.1870244E9,5.879424E7,9.053266E8,2.2919744E7,4.988787E7,7.050824E8,2.2592205E8,0E0,0E0,3.912064E6,5.83296E5,0E0,1.2899174E8,1.9521024E8,0E0,0E0,0E0,0E0,0E0,0E0,0E0,0E0,0E0],"parents":[2147483647,0,0,1,1,2,2,3,3,4,4,5,5,6,6,9,9,10,10,12,12,13,13],"right_children":[2,4,6,8,10,12,14,-1,-1,16,18,-1,20,22,-1,-1,-1,-1,-1,-1,-1,-1,-1],"split_conditions":[-5.658692E-1,1.4705883E-1,2.9411765E-2,-5.320398E-1,-8.9594114E-1,-5.4047906E-1,5E-1,1.6769894E2,3.3811038E2,-1.3807133E0,5E-1,1.8653138E3,-2.1040702E-1,5E-1,2.297042E2,1.3115346E2,1.6927457E2,2.3578027E2,1.6531151E2,2.693601E2,7.2667017E2,4.3340283E2,2.5416252E2],"split_indices":[10,3,3,5,10,10,0,0,0,5,2,0,10,2,0,0,0,0,0,0,0,0,0],"split_type":[0,0,0,0,0,0,0,0,0,0,0,0,0,0,0,0,0,0,0,0,0,0,0],"sum_hessian":[5.04E2,2.02E2,3.02E2,2E1,1.82E2,1.8E1,2.84E2,7E0,1.3E1,1.19E2,6.3E1,1E0,1.7E1,2.59E2,2.5E1,3.5E1,8.4E1,5.1E1,1.2E1,4E0,1.3E1,2.34E2,2.5E1],"tree_param":{"num_deleted":"0","num_feature":"13","num_nodes":"23","size_leaf_vector":"0"}},{"base_weights":[5.7399556E3,3.2201357E3,7.4092075E3,2.6169307E3,3.7368708E3,1.1462942E4,6.639033E3,2.8956267E3,2.12821E3,4.926102E3,3.4410015E3,2.297455E4,1.0155908E4,5.6417046E3,7.8214575E3,2.745122E3,4.789968E3,8.112848E2,2.3909312E3,5.3023784E3,1.1517986E3,3.0662668E3,4.328142E3,3.3325113E4,8.415954E3,2.3959204E3,1.0280651E4,5.0532183E3,7.6048384E3],"categories":[],"categories_nodes":[],"categories_segments":[],"categories_sizes":[],"default_left":[1,1,1,1,1,1,1,1,1,1,1,1,1,1,0,0,0,0,0,0,0,0,0,0,0,0,0,0,0],"id":8,"left_children":[1,3,5,7,9,11,13,15,17,19,21,23,25,27,-1,-1,-1,-1,-1,-1,-1,-1,-1,-1,-1,-1,-1,-1,-1],"loss_changes":[2.1002783E9,5.3494656E7,8.6988595E8,7.048768E6,2.0697088E7,4.7383347E8,2.5894298E8,3.671424E6,1.1553296E7,2.0875424E7,1.6315264E7,3.222912E8,1.7959424E7,1.2677427E8,0E0,0E0,0E0,0E0,0E0,0E0,0E0,0E0,0E0,0E0,0E0,0E0,0E0,0E0,0E0],"parents":[2147483647,0,0,1,1,2,2,3,3,4,4,5,5,6,6,7,7,8,8,9,9,10,10,11,11,12,12,13,13],"right_children":[2,4,6,8,10,12,14,16,18,20,22,24,26,28,-1,-1,-1,-1,-1,-1,-1,-1,-1,-1,-1,-1,-1,-1,-1],"split_conditions":[-6.014154E-1,-5.320398E-1,8.82353E-2,5E-1,2.3529413E-1,-5.506351E-1,5E-1,-6.521957E-1,-1.0178139E0,2.7096024E0,5E-1,2.9411765E-2,-5.35401E-1,1.5E0,4.2587335E2,1.4947014E2,2.6081067E2,4.417394E1,1.3018468E2,2.8871112E2,6.2714695E1,1.6695627E2,2.3566457E2,1.8145311E3,4.5824332E2,1.3045633E2,5.597749E2,2.751445E2,4.1407858E2],"split_indices":[10,5,3,2,3,10,1,10,10,7,1,3,10,11,0,0,0,0,0,0,0,0,0,0,0,0,0,0,0],"split_type":[0,0,0,0,0,0,0,0,0,0,0,0,0,0,0,0,0,0,0,0,0,0,0,0,0,0,0,0,0],"sum_hessian":[5.04E2,2.02E2,3.02E2,9.6E1,1.06E2,4.6E1,2.56E2,5.8E1,3.8E1,1.8E1,8.8E1,3E0,4.3E1,1.42E2,1.14E2,5.6E1,2E0,7E0,3.1E1,1.6E1,2E0,6.5E1,2.3E1,1E0,2E0,1E0,4.2E1,1.12E2,3E1],"tree_param":{"num_deleted":"0","num_feature":"13","num_nodes":"29","size_leaf_vector":"0"}},{"base_weights":[5.363977E3,3.1669026E3,6.853995E3,2.6705098E3,3.8229219E3,2.2758014E4,6.6762554E3,2.2707185E3,2.9767378E3,4.0240723E3,2.8059297E3,1.719117E3,3.241785E4,5.7890405E3,7.666405E3,2.0089203E3,3.022402E3,2.725927E3,4.485713E3,4.055927E3,8.811345E2,5.2426387E3,7.491585E3],"categories":[],"categories_nodes":[],"categories_segments":[],"categories_sizes":[],"default_left":[1,1,1,1,1,1,1,1,1,1,0,0,0,1,0,0,0,0,0,0,0,0,0],"id":9,"left_children":[1,3,5,7,9,11,13,15,17,19,-1,-1,-1,21,-1,-1,-1,-1,-1,-1,-1,-1,-1],"loss_changes":[1.6806072E9,5.882637E7,7.215329E8,8.421056E6,6.914688E6,5.53963E8,2.253097E8,5.341472E6,1.3128768E7,3.634048E6,0E0,0E0,0E0,1.1514829E8,0E0,0E0,0E0,0E0,0E0,0E0,0E0,0E0,0E0],"parents":[2147483647,0,0,1,1,2,2,3,3,4,4,5,5,6,6,7,7,8,8,9,9,13,13],"right_children":[2,4,6,8,10,12,14,16,18,20,-1,-1,-1,22,-1,-1,-1,-1,-1,-1,-1,-1,-1],"split_conditions":[-5.658692E-1,-9.0609723E-1,-5.506351E-1,-9.467215E-1,5E-1,5E-1,5E-1,5E-1,-4.3502337E-1,-5.8110327E-1,1.5278108E2,9.360482E1,1.7651312E3,1.5E0,4.1743085E2,1.0938442E2,1.6456786E2,1.4842499E2,2.442442E2,2.2084264E2,4.797721E1,2.854583E2,4.0791202E2],"split_indices":[10,10,10,10,2,1,1,1,6,10,0,0,0,11,0,0,0,0,0,0,0,0,0],"split_type":[0,0,0,0,0,0,0,0,0,0,0,0,0,0,0,0,0,0,0,0,0,0,0],"sum_hessian":[5.19E2,2.11E2,3.08E2,1.23E2,8.8E1,2E0,3.06E2,5.7E1,6.6E1,7.1E1,1.7E1,1E0,1E0,1.65E2,1.41E2,4.5E1,1.2E1,5.9E1,7E0,7E1,1E0,1.28E2,3.7E1],"tree_param":{"num_deleted":"0","num_feature":"13","num_nodes":"23","size_leaf_vector":"0"}}]},"name":"gbtree"},"learner_model_param":{"base_score":"5E-1","boost_from_average":"0","num_class":"0","num_feature":"13","num_target":"1"},"objective":{"name":"reg:squarederror","reg_loss_param":{"scale_pos_weight":"1"}}},"version":[2,0,3]}